{"sizes":[25,12,4],"layers":[{"RIGHT":{},"tail_10":{},"tail_9":{},"head":{},"egg":{},"DOWN":{},"tail_11":{},"tail_31":{},"LEFT":{},"tail_51":{},"tail_50":{},"UP":{},"tail_49":{},"tail_29":{},"tail_8":{},"tail_7":{},"tail_27":{},"tail_47":{},"tail_67":{},"tail_66":{},"tail_65":{},"tail_64":{},"tail_63":{},"tail_62":{},"tail_61":{}},{"0":{"bias":-0.1027415469288826,"weights":{"RIGHT":-1.2765612602233887,"tail_10":0.6538991928100586,"tail_9":-1.2122375965118408,"head":-0.05276745557785034,"egg":0.011663743294775486,"DOWN":0.43356671929359436,"tail_11":-0.45622530579566956,"tail_31":-0.9863400459289551,"LEFT":1.6136443614959717,"tail_51":0.5721114277839661,"tail_50":1.5474011898040771,"UP":-0.5015732049942017,"tail_49":-0.7341651916503906,"tail_29":0.2489500492811203,"tail_8":-1.8612513542175293,"tail_7":1.859510898590088,"tail_27":-0.5894482135772705,"tail_47":-0.7717257142066956,"tail_67":0.4484996795654297,"tail_66":0.1274852454662323,"tail_65":0.34765762090682983,"tail_64":0.2168542891740799,"tail_63":0.11915336549282074,"tail_62":0.3943479657173157,"tail_61":0.31305432319641113}},"1":{"bias":0.18646582961082458,"weights":{"RIGHT":-0.3720783591270447,"tail_10":1.2314493656158447,"tail_9":0.5766250491142273,"head":-0.13829965889453888,"egg":0.13088828325271606,"DOWN":-0.31094440817832947,"tail_11":-0.29016926884651184,"tail_31":-0.36026352643966675,"LEFT":0.7758834362030029,"tail_51":-1.660522699356079,"tail_50":-0.8425709009170532,"UP":0.1027187779545784,"tail_49":0.038019560277462006,"tail_29":-0.7207347750663757,"tail_8":0.005732553545385599,"tail_7":1.4275178909301758,"tail_27":-0.6539171934127808,"tail_47":-0.6988776326179504,"tail_67":0.7536006569862366,"tail_66":0.5843544602394104,"tail_65":0.5227386355400085,"tail_64":0.4905413091182709,"tail_63":0.5402105450630188,"tail_62":0.5402312874794006,"tail_61":0.3666175603866577}},"2":{"bias":0.5541139841079712,"weights":{"RIGHT":-0.917050838470459,"tail_10":-0.24480794370174408,"tail_9":-1.4145201444625854,"head":0.191165030002594,"egg":0.25974199175834656,"DOWN":1.1136616468429565,"tail_11":0.08724809437990189,"tail_31":0.589354932308197,"LEFT":0.4709698259830475,"tail_51":-0.8630315661430359,"tail_50":-0.5332044363021851,"UP":0.4014899730682373,"tail_49":0.6223117709159851,"tail_29":1.2659251689910889,"tail_8":-1.5556321144104004,"tail_7":1.1756141185760498,"tail_27":-0.0658969059586525,"tail_47":-0.28031057119369507,"tail_67":0.4833154082298279,"tail_66":0.5532566905021667,"tail_65":0.27033349871635437,"tail_64":0.5041446089744568,"tail_63":0.3994644284248352,"tail_62":0.49958258867263794,"tail_61":0.2954549789428711}},"3":{"bias":0.34693631529808044,"weights":{"RIGHT":-0.0959678515791893,"tail_10":-0.8073077201843262,"tail_9":-1.0434188842773438,"head":-0.013036319985985756,"egg":0.21332426369190216,"DOWN":0.5262365341186523,"tail_11":0.2635183334350586,"tail_31":1.130263328552246,"LEFT":-0.3640149235725403,"tail_51":-0.765728235244751,"tail_50":-1.772888422012329,"UP":0.7293694615364075,"tail_49":0.6898418664932251,"tail_29":0.7262375950813293,"tail_8":-0.3782550096511841,"tail_7":-0.43558159470558167,"tail_27":0.4894031286239624,"tail_47":0.6113765835762024,"tail_67":0.2615518271923065,"tail_66":0.50235515832901,"tail_65":0.5096621513366699,"tail_64":0.2603677809238434,"tail_63":0.4344292879104614,"tail_62":0.31337305903434753,"tail_61":0.34918639063835144}},"4":{"bias":0.24362877011299133,"weights":{"RIGHT":-0.5946168899536133,"tail_10":1.0934851169586182,"tail_9":-0.2893213629722595,"head":0.07583194971084595,"egg":0.007921949028968811,"DOWN":-0.13101914525032043,"tail_11":-0.54982990026474,"tail_31":-1.1474006175994873,"LEFT":1.5738236904144287,"tail_51":0.2674223780632019,"tail_50":1.834589958190918,"UP":-0.6690678596496582,"tail_49":-0.4637340009212494,"tail_29":-0.714691162109375,"tail_8":-0.9631072282791138,"tail_7":1.7158361673355103,"tail_27":-0.9544051885604858,"tail_47":-0.9471220374107361,"tail_67":0.24231408536434174,"tail_66":0.18287262320518494,"tail_65":0.2866571843624115,"tail_64":0.10088662058115005,"tail_63":0.25598403811454773,"tail_62":-0.02276322804391384,"tail_61":0.13813453912734985}},"5":{"bias":-0.06453729420900345,"weights":{"RIGHT":-1.3776397705078125,"tail_10":1.2200819253921509,"tail_9":-1.3184138536453247,"head":0.18638621270656586,"egg":0.07024616748094559,"DOWN":0.30302533507347107,"tail_11":-0.4195024371147156,"tail_31":-1.579285740852356,"LEFT":2.054624319076538,"tail_51":0.7363893985748291,"tail_50":2.6457760334014893,"UP":-0.711277186870575,"tail_49":-0.7801517844200134,"tail_29":-0.10213562846183777,"tail_8":-1.9711294174194336,"tail_7":2.5394287109375,"tail_27":-0.8860765099525452,"tail_47":-1.3203330039978027,"tail_67":0.4743804931640625,"tail_66":0.30435559153556824,"tail_65":0.0863821730017662,"tail_64":0.39626482129096985,"tail_63":0.2831559479236603,"tail_62":0.16255047917366028,"tail_61":0.18938657641410828}},"6":{"bias":0.5786778330802917,"weights":{"RIGHT":-0.29765018820762634,"tail_10":-0.7378264665603638,"tail_9":-0.6420630216598511,"head":-0.010788609273731709,"egg":0.07041465491056442,"DOWN":0.2528778314590454,"tail_11":0.1937641054391861,"tail_31":1.3347489833831787,"LEFT":-0.2697244882583618,"tail_51":-0.9783931374549866,"tail_50":-1.905430555343628,"UP":0.7726563811302185,"tail_49":0.5679411888122559,"tail_29":0.48931625485420227,"tail_8":-0.34492650628089905,"tail_7":-0.6710115075111389,"tail_27":0.7291918992996216,"tail_47":0.4884186089038849,"tail_67":0.0729113444685936,"tail_66":0.36595597863197327,"tail_65":0.19823558628559113,"tail_64":0.326732337474823,"tail_63":0.3316941559314728,"tail_62":0.3545992374420166,"tail_61":0.27843135595321655}},"7":{"bias":0.16601043939590454,"weights":{"RIGHT":-0.24622277915477753,"tail_10":1.1015706062316895,"tail_9":0.16668261587619781,"head":0.17784884572029114,"egg":0.028563333675265312,"DOWN":-0.4873577654361725,"tail_11":-0.2748127579689026,"tail_31":-1.1643232107162476,"LEFT":1.3080204725265503,"tail_51":0.5535038709640503,"tail_50":1.600379467010498,"UP":-0.5581281185150146,"tail_49":-0.5495977401733398,"tail_29":-0.8349034190177917,"tail_8":-0.23631739616394043,"tail_7":1.157077670097351,"tail_27":-0.586846113204956,"tail_47":-0.857185423374176,"tail_67":0.3190951943397522,"tail_66":0.08330240100622177,"tail_65":-0.07957777380943298,"tail_64":-0.05352495238184929,"tail_63":0.16154414415359497,"tail_62":0.09477348625659943,"tail_61":0.019758908078074455}},"8":{"bias":0.8907245993614197,"weights":{"RIGHT":-0.8866285085678101,"tail_10":-0.9295161366462708,"tail_9":-1.3852663040161133,"head":0.36795690655708313,"egg":0.010547997429966927,"DOWN":1.2571994066238403,"tail_11":0.33735114336013794,"tail_31":1.4341946840286255,"LEFT":-0.13083072006702423,"tail_51":-1.183817744255066,"tail_50":-1.6806427240371704,"UP":0.8563112616539001,"tail_49":1.0783069133758545,"tail_29":1.69896399974823,"tail_8":-1.3350751399993896,"tail_7":0.5536288619041443,"tail_27":0.17011986672878265,"tail_47":0.6065417528152466,"tail_67":0.6409517526626587,"tail_66":0.4533308744430542,"tail_65":0.4398421049118042,"tail_64":0.3493007719516754,"tail_63":0.5053510069847107,"tail_62":0.400163471698761,"tail_61":0.357231080532074}},"9":{"bias":0.18879345059394836,"weights":{"RIGHT":1.5036624670028687,"tail_10":-0.8175171613693237,"tail_9":1.0440287590026855,"head":-0.09024087339639664,"egg":0.20440970361232758,"DOWN":-0.7179174423217773,"tail_11":0.4575885832309723,"tail_31":1.7458616495132446,"LEFT":-1.5531282424926758,"tail_51":-0.9207993149757385,"tail_50":-2.843125581741333,"UP":1.0185967683792114,"tail_49":1.020075798034668,"tail_29":-0.596603512763977,"tail_8":2.2336740493774414,"tail_7":-2.6509294509887695,"tail_27":1.053515911102295,"tail_47":1.1664412021636963,"tail_67":-0.5276591181755066,"tail_66":0.1296953409910202,"tail_65":0.21846534311771393,"tail_64":0.24396668374538422,"tail_63":0.18770766258239746,"tail_62":0.012125021778047085,"tail_61":0.22350460290908813}},"10":{"bias":-0.6385396718978882,"weights":{"RIGHT":0.9726440906524658,"tail_10":1.0183197259902954,"tail_9":1.3258424997329712,"head":-0.11154518276453018,"egg":0.08045653998851776,"DOWN":-1.425399661064148,"tail_11":-0.5118479132652283,"tail_31":-0.3990960717201233,"LEFT":-0.021830596029758453,"tail_51":-0.6680804491043091,"tail_50":-0.7899386286735535,"UP":-0.45965567231178284,"tail_49":-0.48964783549308777,"tail_29":-1.9569181203842163,"tail_8":1.4909636974334717,"tail_7":-0.4278687536716461,"tail_27":-0.3616794943809509,"tail_47":-0.6132928133010864,"tail_67":0.2017819881439209,"tail_66":-0.10661197453737259,"tail_65":-0.05955418571829796,"tail_64":-0.05199281498789787,"tail_63":-0.053877465426921844,"tail_62":0.07814209163188934,"tail_61":0.14812175929546356}},"11":{"bias":0.06810256838798523,"weights":{"RIGHT":-1.056666612625122,"tail_10":0.45534810423851013,"tail_9":-1.4267551898956299,"head":0.10806689411401749,"egg":-0.14119955897331238,"DOWN":0.22684310376644135,"tail_11":-0.2779141068458557,"tail_31":-1.2560088634490967,"LEFT":1.4173136949539185,"tail_51":0.6516249775886536,"tail_50":1.7809290885925293,"UP":-0.7338874340057373,"tail_49":-0.6279029250144958,"tail_29":0.07417258620262146,"tail_8":-1.6995699405670166,"tail_7":1.7312999963760376,"tail_27":-0.5907232761383057,"tail_47":-0.9025701284408569,"tail_67":0.541580319404602,"tail_66":0.2724543809890747,"tail_65":0.24210107326507568,"tail_64":0.07468263059854507,"tail_63":0.07731261104345322,"tail_62":0.14965955913066864,"tail_61":0.15322358906269073}}},{"DOWN":{"bias":0.507059633731842,"weights":{"0":-2.2097530364990234,"1":1.0474176406860352,"2":-2.9064242839813232,"3":-1.4548035860061646,"4":0.2629413902759552,"5":-1.2594660520553589,"6":-1.0984140634536743,"7":0.675493061542511,"8":-3.254570245742798,"9":2.442352771759033,"10":3.7336738109588623,"11":-2.3630168437957764}},"NONE":{"bias":-2.421617269515991,"weights":{"0":3.213090419769287,"1":0.8785779476165771,"2":1.6224037408828735,"3":-1.4117329120635986,"4":2.4619405269622803,"5":4.606308460235596,"6":-1.6906768083572388,"7":1.351555347442627,"8":0.6637549996376038,"9":-6.322070598602295,"10":-2.3109312057495117,"11":3.0736846923828125}},"LEFT":{"bias":0.07457572966814041,"weights":{"0":-1.8480713367462158,"1":-2.0871872901916504,"2":0.6662223935127258,"3":2.095557689666748,"4":-3.2282135486602783,"5":-3.7877438068389893,"6":2.026401996612549,"7":-3.308699607849121,"8":2.1667988300323486,"9":2.525865077972412,"10":-2.220294952392578,"11":-2.0701515674591064}},"UP":{"bias":-1.006597876548767,"weights":{"0":1.2975412607192993,"1":-2.6777710914611816,"2":-1.671878457069397,"3":-3.0690653324127197,"4":1.2300306558609009,"5":2.034245491027832,"6":-3.2696356773376465,"7":1.6917816400527954,"8":-3.8465559482574463,"9":-3.554309606552124,"10":-0.7405020594596863,"11":1.8157955408096313}}}],"outputLookup":true,"inputLookup":true,"activation":"sigmoid","trainOpts":{"iterations":20000,"errorThresh":0.005,"log":false,"logPeriod":10,"learningRate":0.3,"momentum":0.1,"callbackPeriod":10,"beta1":0.9,"beta2":0.999,"epsilon":1e-8}}